digraph Tree {
node [shape=box] ;
0 [label="Confirmed <= 0.119\ngini = 0.498\nsamples = 115\nvalue = [54, 61]"] ;
1 [label="Confirmed <= 0.054\ngini = 0.16\nsamples = 57\nvalue = [52, 5]"] ;
0 -> 1 [labeldistance=2.5, labelangle=45, headlabel="True"] ;
2 [label="gini = 0.0\nsamples = 45\nvalue = [45, 0]"] ;
1 -> 2 ;
3 [label="Meat <= 0.272\ngini = 0.486\nsamples = 12\nvalue = [7, 5]"] ;
1 -> 3 ;
4 [label="gini = 0.0\nsamples = 5\nvalue = [5, 0]"] ;
3 -> 4 ;
5 [label="gini = 0.408\nsamples = 7\nvalue = [2, 5]"] ;
3 -> 5 ;
6 [label="Population <= 0.0\ngini = 0.067\nsamples = 58\nvalue = [2, 56]"] ;
0 -> 6 [labeldistance=2.5, labelangle=-45, headlabel="False"] ;
7 [label="gini = 0.0\nsamples = 1\nvalue = [1, 0]"] ;
6 -> 7 ;
8 [label="Alcoholic_beverages <= 0.0\ngini = 0.034\nsamples = 57\nvalue = [1, 56]"] ;
6 -> 8 ;
9 [label="gini = 0.0\nsamples = 1\nvalue = [1, 0]"] ;
8 -> 9 ;
10 [label="gini = 0.0\nsamples = 56\nvalue = [0, 56]"] ;
8 -> 10 ;
}